<?xml version="1.0"?>
<opencv_storage>
<cascade>
  <stageType>BOOST</stageType>
  <featureType>HAAR</featureType>
  <height>24</height>
  <width>24</width>
  <stageParams>
    <boostType>GAB</boostType>
    <minHitRate>9.9500000476837158e-001</minHitRate>
    <maxFalseAlarm>5.0000000000000000e-001</maxFalseAlarm>
    <weightTrimRate>9.4999999999999996e-001</weightTrimRate>
    <maxDepth>1</maxDepth>
    <maxWeakCount>100</maxWeakCount></stageParams>
  <featureParams>
    <maxCatCount>0</maxCatCount>
    <featSize>1</featSize>
    <mode>BASIC</mode></featureParams>
  <stageNum>12</stageNum>
  <stages>
    <!-- stage 0 -->
    <_>
      <maxWeakCount>1</maxWeakCount>
      <stageThreshold>9.7530865669250488e-001</stageThreshold>
      <weakClassifiers>
        <_>
          <internalNodes>
            0 -1 7 -1.0912858694791794e-001</internalNodes>
          <leafValues>
            9.7530865669250488e-001 -1.</leafValues></_></weakClassifiers></_>
    <!-- stage 1 -->
    <_>
      <maxWeakCount>1</maxWeakCount>
      <stageThreshold>9.8347109556198120e-001</stageThreshold>
      <weakClassifiers>
        <_>
          <internalNodes>
            0 -1 6 4.4317692518234253e-001</internalNodes>
          <leafValues>
            -1. 9.8347109556198120e-001</leafValues></_></weakClassifiers></_>
    <!-- stage 2 -->
    <_>
      <maxWeakCount>2</maxWeakCount>
      <stageThreshold>-1.4982250332832336e-001</stageThreshold>
      <weakClassifiers>
        <_>
          <internalNodes>
            0 -1 13 1.2855955865234137e-003</internalNodes>
          <leafValues>
            -9.4202899932861328e-001 8.9641433954238892e-001</leafValues></_>
        <_>
          <internalNodes>
            0 -1 16 1.3231127522885799e-003</internalNodes>
          <leafValues>
            -9.8248070478439331e-001 7.9220646619796753e-001</leafValues></_></weakClassifiers></_>
    <!-- stage 3 -->
    <_>
      <maxWeakCount>2</maxWeakCount>
      <stageThreshold>1.5802785754203796e-001</stageThreshold>
      <weakClassifiers>
        <_>
          <internalNodes>
            0 -1 15 -3.4887336194515228e-002</internalNodes>
          <leafValues>
            9.7413790225982666e-001 -7.5000000000000000e-001</leafValues></_>
        <_>
          <internalNodes>
            0 -1 11 -3.0747765302658081e-001</internalNodes>
          <leafValues>
            9.3926912546157837e-001 -8.1611007452011108e-001</leafValues></_></weakClassifiers></_>
    <!-- stage 4 -->
    <_>
      <maxWeakCount>2</maxWeakCount>
      <stageThreshold>-9.5441438257694244e-002</stageThreshold>
      <weakClassifiers>
        <_>
          <internalNodes>
            0 -1 18 1.0612912010401487e-003</internalNodes>
          <leafValues>
            -9.3846154212951660e-001 8.6666667461395264e-001</leafValues></_>
        <_>
          <internalNodes>
            0 -1 8 -1.4342719223350286e-003</internalNodes>
          <leafValues>
            8.4302008152008057e-001 -8.8749867677688599e-001</leafValues></_></weakClassifiers></_>
    <!-- stage 5 -->
    <_>
      <maxWeakCount>1</maxWeakCount>
      <stageThreshold>8.5992217063903809e-001</stageThreshold>
      <weakClassifiers>
        <_>
          <internalNodes>
            0 -1 19 5.1934872753918171e-003</internalNodes>
          <leafValues>
            -9.6825397014617920e-001 8.5992217063903809e-001</leafValues></_></weakClassifiers></_>
    <!-- stage 6 -->
    <_>
      <maxWeakCount>2</maxWeakCount>
      <stageThreshold>-1.2139206379652023e-001</stageThreshold>
      <weakClassifiers>
        <_>
          <internalNodes>
            0 -1 5 4.1041052341461182e-001</internalNodes>
          <leafValues>
            -9.4202899932861328e-001 8.5635358095169067e-001</leafValues></_>
        <_>
          <internalNodes>
            0 -1 12 9.0884789824485779e-002</internalNodes>
          <leafValues>
            -8.1397002935409546e-001 8.2063692808151245e-001</leafValues></_></weakClassifiers></_>
    <!-- stage 7 -->
    <_>
      <maxWeakCount>2</maxWeakCount>
      <stageThreshold>-1.1548796296119690e-001</stageThreshold>
      <weakClassifiers>
        <_>
          <internalNodes>
            0 -1 1 -1.1219531297683716e-001</internalNodes>
          <leafValues>
            7.9569894075393677e-001 -9.0625000000000000e-001</leafValues></_>
        <_>
          <internalNodes>
            0 -1 14 -5.7298270985484123e-003</internalNodes>
          <leafValues>
            8.0839157104492188e-001 -9.1118687391281128e-001</leafValues></_></weakClassifiers></_>
    <!-- stage 8 -->
    <_>
      <maxWeakCount>1</maxWeakCount>
      <stageThreshold>7.5257730484008789e-001</stageThreshold>
      <weakClassifiers>
        <_>
          <internalNodes>
            0 -1 0 8.4065124392509460e-002</internalNodes>
          <leafValues>
            -1. 7.5257730484008789e-001</leafValues></_></weakClassifiers></_>
    <!-- stage 9 -->
    <_>
      <maxWeakCount>2</maxWeakCount>
      <stageThreshold>-8.5443235933780670e-002</stageThreshold>
      <weakClassifiers>
        <_>
          <internalNodes>
            0 -1 2 -4.0361300110816956e-002</internalNodes>
          <leafValues>
            8.7570619583129883e-001 -8.9041095972061157e-001</leafValues></_>
        <_>
          <internalNodes>
            0 -1 17 5.2088019438087940e-003</internalNodes>
          <leafValues>
            -8.8203060626983643e-001 8.0496770143508911e-001</leafValues></_></weakClassifiers></_>
    <!-- stage 10 -->
    <_>
      <maxWeakCount>2</maxWeakCount>
      <stageThreshold>-1.7593806982040405e-001</stageThreshold>
      <weakClassifiers>
        <_>
          <internalNodes>
            0 -1 9 -2.8468116652220488e-003</internalNodes>
          <leafValues>
            8.2608693838119507e-001 -9.3939393758773804e-001</leafValues></_>
        <_>
          <internalNodes>
            0 -1 3 6.9611757062375546e-003</internalNodes>
          <leafValues>
            7.6345586776733398e-001 -9.8300307989120483e-001</leafValues></_></weakClassifiers></_>
    <!-- stage 11 -->
    <_>
      <maxWeakCount>2</maxWeakCount>
      <stageThreshold>-9.8622977733612061e-002</stageThreshold>
      <weakClassifiers>
        <_>
          <internalNodes>
            0 -1 4 -1.7807316908147186e-004</internalNodes>
          <leafValues>
            8.2702702283859253e-001 -9.6923077106475830e-001</leafValues></_>
        <_>
          <internalNodes>
            0 -1 10 7.6237920438870788e-005</internalNodes>
          <leafValues>
            -8.2843637466430664e-001 8.7060779333114624e-001</leafValues></_></weakClassifiers></_></stages>
  <features>
    <_>
      <rects>
        <_>
          0 0 22 3 -1.</_>
        <_>
          11 0 11 3 2.</_></rects>
      <tilted>0</tilted></_>
    <_>
      <rects>
        <_>
          0 2 14 10 -1.</_>
        <_>
          0 7 14 5 2.</_></rects>
      <tilted>0</tilted></_>
    <_>
      <rects>
        <_>
          1 0 5 14 -1.</_>
        <_>
          1 7 5 7 2.</_></rects>
      <tilted>0</tilted></_>
    <_>
      <rects>
        <_>
          1 18 8 6 -1.</_>
        <_>
          1 21 8 3 2.</_></rects>
      <tilted>0</tilted></_>
    <_>
      <rects>
        <_>
          1 19 8 4 -1.</_>
        <_>
          5 19 4 4 2.</_></rects>
      <tilted>0</tilted></_>
    <_>
      <rects>
        <_>
          2 0 22 17 -1.</_>
        <_>
          13 0 11 17 2.</_></rects>
      <tilted>0</tilted></_>
    <_>
      <rects>
        <_>
          2 0 22 23 -1.</_>
        <_>
          13 0 11 23 2.</_></rects>
      <tilted>0</tilted></_>
    <_>
      <rects>
        <_>
          2 1 16 10 -1.</_>
        <_>
          2 6 16 5 2.</_></rects>
      <tilted>0</tilted></_>
    <_>
      <rects>
        <_>
          2 7 2 4 -1.</_>
        <_>
          2 9 2 2 2.</_></rects>
      <tilted>0</tilted></_>
    <_>
      <rects>
        <_>
          2 7 12 1 -1.</_>
        <_>
          6 7 4 1 3.</_></rects>
      <tilted>0</tilted></_>
    <_>
      <rects>
        <_>
          3 13 1 2 -1.</_>
        <_>
          3 14 1 1 2.</_></rects>
      <tilted>0</tilted></_>
    <_>
      <rects>
        <_>
          4 0 16 18 -1.</_>
        <_>
          4 6 16 6 3.</_></rects>
      <tilted>0</tilted></_>
    <_>
      <rects>
        <_>
          5 0 10 14 -1.</_>
        <_>
          10 0 5 14 2.</_></rects>
      <tilted>0</tilted></_>
    <_>
      <rects>
        <_>
          6 9 1 8 -1.</_>
        <_>
          6 13 1 4 2.</_></rects>
      <tilted>0</tilted></_>
    <_>
      <rects>
        <_>
          7 16 6 6 -1.</_>
        <_>
          7 19 6 3 2.</_></rects>
      <tilted>0</tilted></_>
    <_>
      <rects>
        <_>
          9 14 7 10 -1.</_>
        <_>
          9 19 7 5 2.</_></rects>
      <tilted>0</tilted></_>
    <_>
      <rects>
        <_>
          11 0 10 1 -1.</_>
        <_>
          16 0 5 1 2.</_></rects>
      <tilted>0</tilted></_>
    <_>
      <rects>
        <_>
          12 13 6 7 -1.</_>
        <_>
          15 13 3 7 2.</_></rects>
      <tilted>0</tilted></_>
    <_>
      <rects>
        <_>
          18 17 2 6 -1.</_>
        <_>
          19 17 1 6 2.</_></rects>
      <tilted>0</tilted></_>
    <_>
      <rects>
        <_>
          20 6 1 18 -1.</_>
        <_>
          20 15 1 9 2.</_></rects>
      <tilted>0</tilted></_></features></cascade>
</opencv_storage>
